digraph Tree {
node [shape=box] ;
0 [label="source_friend_referral <= 0.5\ngini = 0.0361\nsamples = 211305\nvalue = [207418, 3887]"] ;
1 [label="source_direct_traffic <= 0.5\ngini = 0.0333\nsamples = 197404\nvalue = [194063, 3341]"] ;
0 -> 1 [labeldistance=2.5, labelangle=45, headlabel="True"] ;
2 [label="OS_iOS <= 0.5\ngini = 0.0356\nsamples = 156875\nvalue = [154034, 2841]"] ;
1 -> 2 ;
3 [label="OS_mac <= 0.5\ngini = 0.0326\nsamples = 109581\nvalue = [107765, 1816]"] ;
2 -> 3 ;
4 [label="gini = 0.0306\nsamples = 97099\nvalue = [95592, 1507]"] ;
3 -> 4 ;
5 [label="gini = 0.0483\nsamples = 12482\nvalue = [12173, 309]"] ;
3 -> 5 ;
6 [label="source_ads-bing <= 0.5\ngini = 0.0424\nsamples = 47294\nvalue = [46269, 1025]"] ;
2 -> 6 ;
7 [label="gini = 0.044\nsamples = 42702\nvalue = [41741, 961]"] ;
6 -> 7 ;
8 [label="gini = 0.0275\nsamples = 4592\nvalue = [4528, 64]"] ;
6 -> 8 ;
9 [label="OS_mac <= 0.5\ngini = 0.0244\nsamples = 40529\nvalue = [40029, 500]"] ;
1 -> 9 ;
10 [label="OS_iOS <= 0.5\ngini = 0.0231\nsamples = 37383\nvalue = [36947, 436]"] ;
9 -> 10 ;
11 [label="gini = 0.0194\nsamples = 25342\nvalue = [25094, 248]"] ;
10 -> 11 ;
12 [label="gini = 0.0307\nsamples = 12041\nvalue = [11853, 188]"] ;
10 -> 12 ;
13 [label="price <= 49.0\ngini = 0.0399\nsamples = 3146\nvalue = [3082, 64]"] ;
9 -> 13 ;
14 [label="gini = 0.0408\nsamples = 2113\nvalue = [2069, 44]"] ;
13 -> 14 ;
15 [label="gini = 0.038\nsamples = 1033\nvalue = [1013, 20]"] ;
13 -> 15 ;
16 [label="price <= 49.0\ngini = 0.0755\nsamples = 13901\nvalue = [13355, 546]"] ;
0 -> 16 [labeldistance=2.5, labelangle=-45, headlabel="False"] ;
17 [label="OS_mac <= 0.5\ngini = 0.0827\nsamples = 8816\nvalue = [8435, 381]"] ;
16 -> 17 ;
18 [label="OS_other <= 0.5\ngini = 0.0841\nsamples = 8050\nvalue = [7696, 354]"] ;
17 -> 18 ;
19 [label="gini = 0.0847\nsamples = 7691\nvalue = [7350, 341]"] ;
18 -> 19 ;
20 [label="gini = 0.0698\nsamples = 359\nvalue = [346, 13]"] ;
18 -> 20 ;
21 [label="gini = 0.068\nsamples = 766\nvalue = [739, 27]"] ;
17 -> 21 ;
22 [label="OS_linux <= 0.5\ngini = 0.0628\nsamples = 5085\nvalue = [4920, 165]"] ;
16 -> 22 ;
23 [label="OS_windows <= 0.5\ngini = 0.0647\nsamples = 4930\nvalue = [4765, 165]"] ;
22 -> 23 ;
24 [label="gini = 0.0693\nsamples = 3256\nvalue = [3139, 117]"] ;
23 -> 24 ;
25 [label="gini = 0.0557\nsamples = 1674\nvalue = [1626, 48]"] ;
23 -> 25 ;
26 [label="gini = 0.0\nsamples = 155\nvalue = [155, 0]"] ;
22 -> 26 ;
}